<?xml version="1.0"?>
<opencv_storage>
<cascade>
  <stageType>BOOST</stageType>
  <featureType>HOG</featureType>
  <height>243</height>
  <width>320</width>
  <stageParams>
    <boostType>GAB</boostType>
    <minHitRate>9.9800002574920654e-01</minHitRate>
    <maxFalseAlarm>3.0000001192092896e-01</maxFalseAlarm>
    <weightTrimRate>9.4999999999999996e-01</weightTrimRate>
    <maxDepth>1</maxDepth>
    <maxWeakCount>100</maxWeakCount></stageParams>
  <featureParams>
    <maxCatCount>0</maxCatCount>
    <featSize>36</featSize></featureParams>
  <stageNum>2</stageNum>
  <stages>
    <!-- stage 0 -->
    <_>
      <maxWeakCount>2</maxWeakCount>
      <stageThreshold>3.6647997796535492e-02</stageThreshold>
      <weakClassifiers>
        <_>
          <internalNodes>
            0 -1 1 4.8099692910909653e-02</internalNodes>
          <leafValues>
            -9.5121949911117554e-01 1.</leafValues></_>
        <_>
          <internalNodes>
            0 -1 1 4.5607075095176697e-02</internalNodes>
          <leafValues>
            -1. 9.8786753416061401e-01</leafValues></_></weakClassifiers></_>
    <!-- stage 1 -->
    <_>
      <maxWeakCount>1</maxWeakCount>
      <stageThreshold>1.</stageThreshold>
      <weakClassifiers>
        <_>
          <internalNodes>
            0 -1 0 9.1654747724533081e-02</internalNodes>
          <leafValues>
            1. -1.</leafValues></_></weakClassifiers></_></stages>
  <features>
    <_>
      <rect>
        0 0 8 8 23</rect></_>
    <_>
      <rect>
        188 36 40 80 3</rect></_></features></cascade>
</opencv_storage>
